Language model created by QuickLM on Thu Jun 18 10:58:41 EDT 2015
Copyright (c) 1996-2010 Carnegie Mellon University and Alexander I. Rudnicky

The model is in standard ARPA format, designed by Doug Paul while he was at MITRE.

The code that was used to produce this language model is available in Open Source.
Please visit http://www.speech.cs.cmu.edu/tools/ for more information

The (fixed) discount mass is 0.5. The backoffs are computed using the ratio method.
This model based on a corpus of 11 sentences and 77 words

\data\
ngram 1=77
ngram 2=110
ngram 3=106

\1-grams:
-1.3702 </s> -0.3010
-1.3702 <s> -0.2511
-2.4116 AAN -0.2856
-2.4116 AVOND -0.2856
-2.4116 BEETJE -0.2993
-1.9345 BEWOLKING -0.2942
-2.4116 BINNENLAND -0.2993
-2.4116 DAAR -0.2993
-2.4116 DAARBIJ -0.2993
-1.4574 DE -0.2856
-2.4116 DEEL -0.2977
-2.4116 DUN -0.2925
-1.8096 EEN -0.2942
-1.7126 EN -0.2856
-2.4116 ER -0.2993
-2.4116 GESTAAG -0.2993
-2.4116 GRAAD -0.2977
-2.4116 GRADEN -0.2821
-2.4116 HEB -0.2993
-2.4116 HEEFT -0.2993
-2.4116 HELDERE -0.2993
-2.1106 HELP -0.2803
-1.6335 HET -0.2856
-2.4116 HULP -0.2993
-2.4116 IK -0.2993
-1.7126 IN -0.2750
-2.1106 IS -0.2891
-2.4116 KAN -0.2925
-2.4116 KOMT -0.2856
-2.4116 KUST -0.2977
-2.4116 KUSTGEBIEDEN -0.2993
-2.4116 LAND -0.2821
-2.4116 LATER -0.2925
-2.4116 LOST -0.2856
-2.4116 MAKEN -0.2993
-2.4116 MATIGE -0.2993
-2.4116 ME -0.2821
-2.4116 MET -0.2993
-2.4116 MOTREGEN -0.2993
-2.4116 NAAR -0.2993
-2.4116 NEEMT -0.2993
-2.4116 NODIG -0.2821
-2.1106 NOORDEN -0.2856
-2.4116 NOORDWESTEN -0.2993
-2.1106 OF -0.2977
-2.4116 OOSTEN -0.2993
-2.1106 OP -0.2908
-2.4116 OVER -0.2908
-2.4116 PERIODEN -0.2821
-2.4116 PLAATSEN -0.2856
-2.4116 REGEN -0.2977
-2.4116 SCHIJNT -0.2977
-2.4116 STAAT -0.2942
-2.4116 STAPELWOLKEN -0.2925
-2.4116 STIJGT -0.2856
-2.4116 TALRIJKE -0.2993
-2.4116 TE -0.2993
-2.4116 TEMPERATUUR -0.2993
-2.4116 TEVOORSCHIJN -0.2821
-2.4116 TOE -0.2925
-2.4116 TREKKEN -0.2993
-2.4116 TWINTIG -0.2993
-2.4116 VAKER -0.2993
-2.4116 VALLEN -0.2821
-2.4116 VANAVOND -0.2993
-2.4116 VANMIDDAG -0.2993
-2.4116 VANNACHT -0.2993
-2.4116 VANOCHTEND -0.2993
-2.4116 VERSCHILLENDE -0.2993
-2.4116 VOOR -0.2942
-2.4116 VOORAL -0.2925
-2.4116 WOLKENVELDEN -0.2993
-2.4116 ZEVENTIEN -0.2821
-2.4116 ZIJN -0.2993
-2.1106 ZON -0.2803
-2.4116 ZOON -0.2993
-2.4116 ZUIDWESTENWIND -0.2821

\2-grams:
-1.3424 <s> AAN 0.0000
-1.3424 <s> DAARBIJ 0.0000
-1.3424 <s> DE -0.2218
-1.0414 <s> HELP 0.0000
-1.3424 <s> HET -0.2632
-1.3424 <s> IK 0.0000
-1.3424 <s> IN -0.1461
-1.3424 <s> VANAVOND 0.0000
-1.3424 <s> VANMIDDAG 0.0000
-1.3424 <s> VANOCHTEND 0.0000
-0.3010 AAN DE -0.2762
-0.3010 AVOND DE -0.2218
-0.3010 BEETJE REGEN 0.0000
-0.7782 BEWOLKING IS -0.1761
-0.7782 BEWOLKING TOE 0.0000
-0.7782 BEWOLKING VOOR 0.0000
-0.3010 BINNENLAND HEEFT 0.0000
-0.3010 DAAR STIJGT 0.0000
-0.3010 DAARBIJ STAAT 0.0000
-1.2553 DE AVOND 0.0000
-0.7782 DE BEWOLKING 0.0000
-1.2553 DE KUST 0.0000
-1.2553 DE KUSTGEBIEDEN 0.0000
-1.2553 DE TEMPERATUUR 0.0000
-0.9542 DE ZON 0.0000
-0.3010 DEEL OP -0.1761
-0.3010 DUN EN -0.2553
-0.9031 EEN BEETJE 0.0000
-0.9031 EEN DEEL 0.0000
-0.9031 EEN GRAAD 0.0000
-0.9031 EEN MATIGE 0.0000
-1.0000 EN DAAR 0.0000
-1.0000 EN IN -0.2041
-1.0000 EN OOSTEN 0.0000
-1.0000 EN VANNACHT 0.0000
-1.0000 EN VOORAL 0.0000
-0.3010 ER HELDERE 0.0000
-0.3010 GESTAAG OVER 0.0000
-0.3010 GRAAD OF -0.1761
-0.3010 GRADEN </s> -0.3010
-0.3010 HEB HULP 0.0000
-0.3010 HEEFT TE 0.0000
-0.3010 HELDERE PERIODEN 0.0000
-0.6021 HELP </s> -0.3010
-0.6021 HELP ME 0.0000
-1.0792 HET BINNENLAND 0.0000
-1.0792 HET EEN -0.2430
-1.0792 HET LAND 0.0000
-0.7782 HET NOORDEN 0.0000
-1.0792 HET NOORDWESTEN 0.0000
-0.3010 HULP NODIG 0.0000
-0.3010 IK HEB 0.0000
-0.6990 IN DE -0.2499
-0.5229 IN HET -0.1761
-0.6021 IS DUN 0.0000
-0.6021 IS HET -0.2632
-0.3010 KAN IN -0.1461
-0.3010 KOMT DE -0.2499
-0.3010 KUST IS -0.1761
-0.3010 KUSTGEBIEDEN KOMT 0.0000
-0.3010 LAND </s> -0.3010
-0.3010 LATER IN -0.2041
-0.3010 LOST DE -0.2218
-0.3010 MAKEN MET 0.0000
-0.3010 MATIGE ZUIDWESTENWIND 0.0000
-0.3010 ME </s> -0.3010
-0.3010 MET TALRIJKE 0.0000
-0.3010 MOTREGEN VALLEN 0.0000
-0.3010 NAAR ZOON 0.0000
-0.3010 NEEMT LATER 0.0000
-0.3010 NODIG </s> -0.3010
-0.6021 NOORDEN EEN -0.2430
-0.6021 NOORDEN EN -0.2553
-0.3010 NOORDWESTEN NEEMT 0.0000
-0.6021 OF MOTREGEN 0.0000
-0.6021 OF ZEVENTIEN 0.0000
-0.3010 OOSTEN SCHIJNT 0.0000
-0.6021 OP EN -0.2553
-0.6021 OP VERSCHILLENDE 0.0000
-0.3010 OVER HET -0.2632
-0.3010 PERIODEN </s> -0.3010
-0.3010 PLAATSEN DE -0.2499
-0.3010 REGEN OF -0.1761
-0.3010 SCHIJNT OP -0.1761
-0.3010 STAAT EEN -0.2430
-0.3010 STAPELWOLKEN EN -0.2553
-0.3010 STIJGT DE -0.2762
-0.3010 TALRIJKE STAPELWOLKEN 0.0000
-0.3010 TE MAKEN 0.0000
-0.3010 TEMPERATUUR NAAR 0.0000
-0.3010 TEVOORSCHIJN </s> -0.3010
-0.3010 TOE EN -0.2553
-0.3010 TREKKEN WOLKENVELDEN 0.0000
-0.3010 TWINTIG GRADEN 0.0000
-0.3010 VAKER TEVOORSCHIJN 0.0000
-0.3010 VALLEN </s> -0.3010
-0.3010 VANAVOND ZIJN 0.0000
-0.3010 VANMIDDAG LOST 0.0000
-0.3010 VANNACHT KAN 0.0000
-0.3010 VANOCHTEND TREKKEN 0.0000
-0.3010 VERSCHILLENDE PLAATSEN 0.0000
-0.3010 VOOR EEN -0.2430
-0.3010 VOORAL IN -0.1461
-0.3010 WOLKENVELDEN GESTAAG 0.0000
-0.3010 ZEVENTIEN </s> -0.3010
-0.3010 ZIJN ER 0.0000
-0.6021 ZON </s> -0.3010
-0.6021 ZON VAKER 0.0000
-0.3010 ZOON TWINTIG 0.0000
-0.3010 ZUIDWESTENWIND </s> -0.3010

\3-grams:
-0.3010 <s> AAN DE
-0.3010 <s> DAARBIJ STAAT
-0.3010 <s> DE BEWOLKING
-0.6021 <s> HELP </s>
-0.6021 <s> HELP ME
-0.3010 <s> HET BINNENLAND
-0.3010 <s> IK HEB
-0.3010 <s> IN HET
-0.3010 <s> VANAVOND ZIJN
-0.3010 <s> VANMIDDAG LOST
-0.3010 <s> VANOCHTEND TREKKEN
-0.3010 AAN DE KUST
-0.3010 AVOND DE BEWOLKING
-0.3010 BEETJE REGEN OF
-0.3010 BEWOLKING IS DUN
-0.3010 BEWOLKING TOE EN
-0.3010 BEWOLKING VOOR EEN
-0.3010 BINNENLAND HEEFT TE
-0.3010 DAAR STIJGT DE
-0.3010 DAARBIJ STAAT EEN
-0.3010 DE AVOND DE
-0.7782 DE BEWOLKING IS
-0.7782 DE BEWOLKING TOE
-0.7782 DE BEWOLKING VOOR
-0.3010 DE KUST IS
-0.3010 DE KUSTGEBIEDEN KOMT
-0.3010 DE TEMPERATUUR NAAR
-0.6021 DE ZON </s>
-0.6021 DE ZON VAKER
-0.3010 DEEL OP EN
-0.3010 DUN EN VOORAL
-0.3010 EEN BEETJE REGEN
-0.3010 EEN DEEL OP
-0.3010 EEN GRAAD OF
-0.3010 EEN MATIGE ZUIDWESTENWIND
-0.3010 EN DAAR STIJGT
-0.3010 EN IN DE
-0.3010 EN OOSTEN SCHIJNT
-0.3010 EN VANNACHT KAN
-0.3010 EN VOORAL IN
-0.3010 ER HELDERE PERIODEN
-0.3010 GESTAAG OVER HET
-0.3010 GRAAD OF ZEVENTIEN
-0.3010 HEB HULP NODIG
-0.3010 HEEFT TE MAKEN
-0.3010 HELDERE PERIODEN </s>
-0.3010 HELP ME </s>
-0.3010 HET BINNENLAND HEEFT
-0.3010 HET EEN GRAAD
-0.3010 HET LAND </s>
-0.6021 HET NOORDEN EEN
-0.6021 HET NOORDEN EN
-0.3010 HET NOORDWESTEN NEEMT
-0.3010 HULP NODIG </s>
-0.3010 IK HEB HULP
-0.6021 IN DE AVOND
-0.6021 IN DE KUSTGEBIEDEN
-0.4771 IN HET NOORDEN
-0.7782 IN HET NOORDWESTEN
-0.3010 IS DUN EN
-0.3010 IS HET EEN
-0.3010 KAN IN HET
-0.3010 KOMT DE ZON
-0.3010 KUST IS HET
-0.3010 KUSTGEBIEDEN KOMT DE
-0.3010 LATER IN DE
-0.3010 LOST DE BEWOLKING
-0.3010 MAKEN MET TALRIJKE
-0.3010 MATIGE ZUIDWESTENWIND </s>
-0.3010 MET TALRIJKE STAPELWOLKEN
-0.3010 MOTREGEN VALLEN </s>
-0.3010 NAAR ZOON TWINTIG
-0.3010 NEEMT LATER IN
-0.3010 NOORDEN EEN BEETJE
-0.3010 NOORDEN EN OOSTEN
-0.3010 NOORDWESTEN NEEMT LATER
-0.3010 OF MOTREGEN VALLEN
-0.3010 OF ZEVENTIEN </s>
-0.3010 OOSTEN SCHIJNT OP
-0.3010 OP EN IN
-0.3010 OP VERSCHILLENDE PLAATSEN
-0.3010 OVER HET LAND
-0.3010 PLAATSEN DE ZON
-0.3010 REGEN OF MOTREGEN
-0.3010 SCHIJNT OP VERSCHILLENDE
-0.3010 STAAT EEN MATIGE
-0.3010 STAPELWOLKEN EN DAAR
-0.3010 STIJGT DE TEMPERATUUR
-0.3010 TALRIJKE STAPELWOLKEN EN
-0.3010 TE MAKEN MET
-0.3010 TEMPERATUUR NAAR ZOON
-0.3010 TOE EN VANNACHT
-0.3010 TREKKEN WOLKENVELDEN GESTAAG
-0.3010 TWINTIG GRADEN </s>
-0.3010 VAKER TEVOORSCHIJN </s>
-0.3010 VANAVOND ZIJN ER
-0.3010 VANMIDDAG LOST DE
-0.3010 VANNACHT KAN IN
-0.3010 VANOCHTEND TREKKEN WOLKENVELDEN
-0.3010 VERSCHILLENDE PLAATSEN DE
-0.3010 VOOR EEN DEEL
-0.3010 VOORAL IN HET
-0.3010 WOLKENVELDEN GESTAAG OVER
-0.3010 ZIJN ER HELDERE
-0.3010 ZON VAKER TEVOORSCHIJN
-0.3010 ZOON TWINTIG GRADEN

\end\
